digraph Tree {
0 [label="X[1] <= 11.0714\ngini = 0.981216276522\nsamples = 157", shape="box"] ;
1 [label="X[4] <= 0.2373\ngini = 0.98038328905\nsamples = 133", shape="box"] ;
0 -> 1 ;
2 [label="X[11] <= 0.3480\ngini = 0.903047091413\nsamples = 19", shape="box"] ;
1 -> 2 ;
3 [label="X[8] <= -2.7418\ngini = 0.740740740741\nsamples = 9", shape="box"] ;
2 -> 3 ;
4 [label="X[0] <= 0.0918\ngini = 0.75\nsamples = 4", shape="box"] ;
3 -> 4 ;
5 [label="gini = 0.0000\nsamples = 1\nvalue = [ 1.  0.  0.  0.  0.  0.  0.  0.  0.  0.  0.  0.  0.  0.  0.  0.  0.  0.
  0.  0.  0.  0.  0.  0.  0.  0.  0.  0.  0.  0.  0.  0.  0.  0.  0.  0.
  0.  0.  0.  0.  0.  0.  0.  0.  0.  0.  0.  0.  0.  0.  0.  0.  0.  0.
  0.  0.  0.  0.  0.  0.  0.  0.  0.  0.  0.  0.  0.  0.  0.  0.  0.  0.]", shape="box"] ;
4 -> 5 ;
6 [label="X[4] <= 0.1317\ngini = 0.666666666667\nsamples = 3", shape="box"] ;
4 -> 6 ;
7 [label="gini = 0.0000\nsamples = 1\nvalue = [ 0.  0.  0.  0.  0.  0.  0.  0.  1.  0.  0.  0.  0.  0.  0.  0.  0.  0.
  0.  0.  0.  0.  0.  0.  0.  0.  0.  0.  0.  0.  0.  0.  0.  0.  0.  0.
  0.  0.  0.  0.  0.  0.  0.  0.  0.  0.  0.  0.  0.  0.  0.  0.  0.  0.
  0.  0.  0.  0.  0.  0.  0.  0.  0.  0.  0.  0.  0.  0.  0.  0.  0.  0.]", shape="box"] ;
6 -> 7 ;
8 [label="X[1] <= 7.6551\ngini = 0.5\nsamples = 2", shape="box"] ;
6 -> 8 ;
9 [label="gini = 0.0000\nsamples = 1\nvalue = [ 0.  0.  0.  0.  0.  0.  0.  0.  0.  0.  0.  0.  0.  0.  0.  0.  0.  0.
  0.  0.  0.  0.  0.  0.  1.  0.  0.  0.  0.  0.  0.  0.  0.  0.  0.  0.
  0.  0.  0.  0.  0.  0.  0.  0.  0.  0.  0.  0.  0.  0.  0.  0.  0.  0.
  0.  0.  0.  0.  0.  0.  0.  0.  0.  0.  0.  0.  0.  0.  0.  0.  0.  0.]", shape="box"] ;
8 -> 9 ;
10 [label="gini = 0.0000\nsamples = 1\nvalue = [ 0.  0.  0.  0.  0.  0.  0.  0.  0.  0.  0.  0.  0.  0.  0.  0.  0.  0.
  0.  0.  0.  0.  0.  0.  0.  0.  0.  0.  0.  0.  0.  0.  0.  0.  0.  0.
  0.  0.  0.  0.  0.  0.  0.  0.  0.  0.  0.  0.  0.  1.  0.  0.  0.  0.
  0.  0.  0.  0.  0.  0.  0.  0.  0.  0.  0.  0.  0.  0.  0.  0.  0.  0.]", shape="box"] ;
8 -> 10 ;
11 [label="X[10] <= 0.3899\ngini = 0.32\nsamples = 5", shape="box"] ;
3 -> 11 ;
12 [label="gini = 0.0000\nsamples = 4\nvalue = [ 0.  0.  0.  0.  0.  0.  0.  0.  0.  0.  0.  0.  0.  0.  0.  0.  0.  0.
  0.  0.  0.  0.  0.  0.  0.  0.  0.  0.  0.  0.  0.  0.  0.  0.  0.  0.
  0.  0.  0.  0.  0.  0.  4.  0.  0.  0.  0.  0.  0.  0.  0.  0.  0.  0.
  0.  0.  0.  0.  0.  0.  0.  0.  0.  0.  0.  0.  0.  0.  0.  0.  0.  0.]", shape="box"] ;
11 -> 12 ;
13 [label="gini = 0.0000\nsamples = 1\nvalue = [ 0.  0.  1.  0.  0.  0.  0.  0.  0.  0.  0.  0.  0.  0.  0.  0.  0.  0.
  0.  0.  0.  0.  0.  0.  0.  0.  0.  0.  0.  0.  0.  0.  0.  0.  0.  0.
  0.  0.  0.  0.  0.  0.  0.  0.  0.  0.  0.  0.  0.  0.  0.  0.  0.  0.
  0.  0.  0.  0.  0.  0.  0.  0.  0.  0.  0.  0.  0.  0.  0.  0.  0.  0.]", shape="box"] ;
11 -> 13 ;
14 [label="X[7] <= 8.5665\ngini = 0.86\nsamples = 10", shape="box"] ;
2 -> 14 ;
15 [label="gini = 0.0000\nsamples = 2\nvalue = [ 0.  0.  0.  0.  0.  0.  0.  0.  0.  0.  0.  0.  0.  0.  0.  0.  0.  0.
  0.  0.  0.  0.  0.  0.  0.  0.  0.  0.  0.  0.  0.  0.  0.  0.  0.  0.
  0.  0.  0.  0.  0.  0.  0.  0.  0.  0.  0.  0.  0.  0.  0.  0.  0.  0.
  0.  0.  0.  0.  0.  0.  0.  0.  0.  0.  0.  0.  0.  0.  2.  0.  0.  0.]", shape="box"] ;
14 -> 15 ;
16 [label="X[9] <= 0.2889\ngini = 0.84375\nsamples = 8", shape="box"] ;
14 -> 16 ;
17 [label="gini = 0.0000\nsamples = 2\nvalue = [ 0.  0.  0.  0.  2.  0.  0.  0.  0.  0.  0.  0.  0.  0.  0.  0.  0.  0.
  0.  0.  0.  0.  0.  0.  0.  0.  0.  0.  0.  0.  0.  0.  0.  0.  0.  0.
  0.  0.  0.  0.  0.  0.  0.  0.  0.  0.  0.  0.  0.  0.  0.  0.  0.  0.
  0.  0.  0.  0.  0.  0.  0.  0.  0.  0.  0.  0.  0.  0.  0.  0.  0.  0.]", shape="box"] ;
16 -> 17 ;
18 [label="X[8] <= 3.4590\ngini = 0.833333333333\nsamples = 6", shape="box"] ;
16 -> 18 ;
19 [label="X[5] <= 0.2502\ngini = 0.75\nsamples = 4", shape="box"] ;
18 -> 19 ;
20 [label="gini = 0.0000\nsamples = 1\nvalue = [ 0.  0.  0.  0.  0.  0.  0.  0.  0.  0.  0.  0.  0.  0.  1.  0.  0.  0.
  0.  0.  0.  0.  0.  0.  0.  0.  0.  0.  0.  0.  0.  0.  0.  0.  0.  0.
  0.  0.  0.  0.  0.  0.  0.  0.  0.  0.  0.  0.  0.  0.  0.  0.  0.  0.
  0.  0.  0.  0.  0.  0.  0.  0.  0.  0.  0.  0.  0.  0.  0.  0.  0.  0.]", shape="box"] ;
19 -> 20 ;
21 [label="X[5] <= 0.4223\ngini = 0.666666666667\nsamples = 3", shape="box"] ;
19 -> 21 ;
22 [label="gini = 0.0000\nsamples = 1\nvalue = [ 0.  0.  0.  0.  0.  0.  0.  0.  0.  0.  0.  0.  0.  0.  0.  0.  0.  0.
  0.  0.  0.  0.  1.  0.  0.  0.  0.  0.  0.  0.  0.  0.  0.  0.  0.  0.
  0.  0.  0.  0.  0.  0.  0.  0.  0.  0.  0.  0.  0.  0.  0.  0.  0.  0.
  0.  0.  0.  0.  0.  0.  0.  0.  0.  0.  0.  0.  0.  0.  0.  0.  0.  0.]", shape="box"] ;
21 -> 22 ;
23 [label="X[10] <= 0.2023\ngini = 0.5\nsamples = 2", shape="box"] ;
21 -> 23 ;
24 [label="gini = 0.0000\nsamples = 1\nvalue = [ 0.  0.  0.  0.  0.  0.  0.  0.  0.  0.  0.  0.  0.  0.  0.  0.  0.  0.
  0.  0.  0.  0.  0.  0.  0.  0.  0.  0.  0.  0.  0.  0.  0.  0.  0.  0.
  0.  0.  0.  0.  0.  0.  0.  0.  0.  0.  0.  0.  0.  0.  0.  0.  0.  0.
  1.  0.  0.  0.  0.  0.  0.  0.  0.  0.  0.  0.  0.  0.  0.  0.  0.  0.]", shape="box"] ;
23 -> 24 ;
25 [label="gini = 0.0000\nsamples = 1\nvalue = [ 0.  0.  0.  0.  0.  0.  0.  0.  0.  0.  0.  0.  0.  1.  0.  0.  0.  0.
  0.  0.  0.  0.  0.  0.  0.  0.  0.  0.  0.  0.  0.  0.  0.  0.  0.  0.
  0.  0.  0.  0.  0.  0.  0.  0.  0.  0.  0.  0.  0.  0.  0.  0.  0.  0.
  0.  0.  0.  0.  0.  0.  0.  0.  0.  0.  0.  0.  0.  0.  0.  0.  0.  0.]", shape="box"] ;
23 -> 25 ;
26 [label="X[1] <= 8.9681\ngini = 0.5\nsamples = 2", shape="box"] ;
18 -> 26 ;
27 [label="gini = 0.0000\nsamples = 1\nvalue = [ 0.  0.  0.  0.  0.  0.  0.  0.  0.  0.  0.  0.  0.  0.  0.  0.  0.  0.
  0.  0.  0.  0.  0.  0.  0.  0.  0.  0.  0.  0.  1.  0.  0.  0.  0.  0.
  0.  0.  0.  0.  0.  0.  0.  0.  0.  0.  0.  0.  0.  0.  0.  0.  0.  0.
  0.  0.  0.  0.  0.  0.  0.  0.  0.  0.  0.  0.  0.  0.  0.  0.  0.  0.]", shape="box"] ;
26 -> 27 ;
28 [label="gini = 0.0000\nsamples = 1\nvalue = [ 0.  0.  0.  0.  0.  0.  0.  0.  0.  0.  0.  0.  0.  0.  0.  0.  0.  0.
  0.  0.  0.  0.  0.  0.  0.  0.  0.  0.  0.  0.  0.  0.  0.  0.  0.  0.
  0.  0.  0.  0.  0.  0.  0.  0.  0.  1.  0.  0.  0.  0.  0.  0.  0.  0.
  0.  0.  0.  0.  0.  0.  0.  0.  0.  0.  0.  0.  0.  0.  0.  0.  0.  0.]", shape="box"] ;
26 -> 28 ;
29 [label="X[9] <= 0.5654\ngini = 0.979532163743\nsamples = 114", shape="box"] ;
1 -> 29 ;
30 [label="X[1] <= 6.3534\ngini = 0.979997687594\nsamples = 93", shape="box"] ;
29 -> 30 ;
31 [label="X[10] <= 0.7410\ngini = 0.78125\nsamples = 8", shape="box"] ;
30 -> 31 ;
32 [label="X[7] <= 5.5809\ngini = 0.375\nsamples = 4", shape="box"] ;
31 -> 32 ;
33 [label="gini = 0.0000\nsamples = 1\nvalue = [ 0.  0.  0.  0.  0.  0.  0.  0.  0.  0.  0.  0.  0.  0.  0.  0.  0.  0.
  0.  0.  0.  0.  0.  0.  0.  0.  0.  0.  0.  0.  0.  0.  0.  0.  0.  0.
  0.  0.  0.  1.  0.  0.  0.  0.  0.  0.  0.  0.  0.  0.  0.  0.  0.  0.
  0.  0.  0.  0.  0.  0.  0.  0.  0.  0.  0.  0.  0.  0.  0.  0.  0.  0.]", shape="box"] ;
32 -> 33 ;
34 [label="gini = 0.0000\nsamples = 3\nvalue = [ 0.  0.  0.  0.  0.  0.  0.  0.  0.  0.  0.  0.  0.  0.  0.  0.  0.  0.
  0.  0.  0.  0.  0.  0.  0.  0.  0.  0.  0.  0.  0.  0.  0.  0.  0.  0.
  0.  0.  3.  0.  0.  0.  0.  0.  0.  0.  0.  0.  0.  0.  0.  0.  0.  0.
  0.  0.  0.  0.  0.  0.  0.  0.  0.  0.  0.  0.  0.  0.  0.  0.  0.  0.]", shape="box"] ;
32 -> 34 ;
35 [label="X[9] <= 0.3701\ngini = 0.75\nsamples = 4", shape="box"] ;
31 -> 35 ;
36 [label="gini = 0.0000\nsamples = 1\nvalue = [ 0.  0.  0.  0.  0.  0.  0.  0.  0.  0.  0.  0.  0.  0.  0.  0.  0.  0.
  0.  0.  0.  0.  0.  0.  0.  0.  0.  0.  0.  0.  0.  0.  0.  0.  0.  0.
  0.  0.  0.  0.  0.  0.  0.  0.  0.  0.  0.  0.  0.  0.  0.  0.  0.  0.
  0.  0.  1.  0.  0.  0.  0.  0.  0.  0.  0.  0.  0.  0.  0.  0.  0.  0.]", shape="box"] ;
35 -> 36 ;
37 [label="X[7] <= 5.6515\ngini = 0.666666666667\nsamples = 3", shape="box"] ;
35 -> 37 ;
38 [label="gini = 0.0000\nsamples = 1\nvalue = [ 0.  0.  0.  0.  0.  0.  0.  0.  0.  0.  0.  0.  0.  0.  0.  0.  0.  0.
  0.  0.  0.  0.  0.  0.  0.  0.  0.  0.  0.  0.  0.  0.  0.  0.  0.  0.
  0.  0.  0.  0.  0.  0.  0.  0.  0.  0.  0.  0.  0.  0.  0.  0.  0.  0.
  0.  0.  0.  0.  0.  0.  0.  0.  0.  0.  1.  0.  0.  0.  0.  0.  0.  0.]", shape="box"] ;
37 -> 38 ;
39 [label="X[10] <= 1.4539\ngini = 0.5\nsamples = 2", shape="box"] ;
37 -> 39 ;
40 [label="gini = 0.0000\nsamples = 1\nvalue = [ 0.  0.  0.  0.  0.  0.  0.  0.  0.  0.  0.  0.  0.  0.  0.  0.  0.  0.
  1.  0.  0.  0.  0.  0.  0.  0.  0.  0.  0.  0.  0.  0.  0.  0.  0.  0.
  0.  0.  0.  0.  0.  0.  0.  0.  0.  0.  0.  0.  0.  0.  0.  0.  0.  0.
  0.  0.  0.  0.  0.  0.  0.  0.  0.  0.  0.  0.  0.  0.  0.  0.  0.  0.]", shape="box"] ;
39 -> 40 ;
41 [label="gini = 0.0000\nsamples = 1\nvalue = [ 0.  0.  0.  0.  0.  0.  0.  0.  0.  0.  0.  0.  0.  0.  0.  1.  0.  0.
  0.  0.  0.  0.  0.  0.  0.  0.  0.  0.  0.  0.  0.  0.  0.  0.  0.  0.
  0.  0.  0.  0.  0.  0.  0.  0.  0.  0.  0.  0.  0.  0.  0.  0.  0.  0.
  0.  0.  0.  0.  0.  0.  0.  0.  0.  0.  0.  0.  0.  0.  0.  0.  0.  0.]", shape="box"] ;
39 -> 41 ;
42 [label="X[0] <= 1.3156\ngini = 0.97937716263\nsamples = 85", shape="box"] ;
30 -> 42 ;
43 [label="X[10] <= 0.1887\ngini = 0.978814205152\nsamples = 81", shape="box"] ;
42 -> 43 ;
44 [label="X[0] <= 0.2272\ngini = 0.72\nsamples = 5", shape="box"] ;
43 -> 44 ;
45 [label="gini = 0.0000\nsamples = 2\nvalue = [ 0.  0.  0.  0.  0.  0.  0.  0.  0.  0.  0.  0.  0.  0.  0.  0.  0.  0.
  0.  0.  0.  0.  0.  0.  0.  0.  0.  0.  0.  0.  0.  0.  0.  0.  0.  0.
  0.  0.  0.  0.  0.  0.  0.  0.  2.  0.  0.  0.  0.  0.  0.  0.  0.  0.
  0.  0.  0.  0.  0.  0.  0.  0.  0.  0.  0.  0.  0.  0.  0.  0.  0.  0.]", shape="box"] ;
44 -> 45 ;
46 [label="X[0] <= 0.5052\ngini = 0.666666666667\nsamples = 3", shape="box"] ;
44 -> 46 ;
47 [label="gini = 0.0000\nsamples = 1\nvalue = [ 0.  0.  0.  0.  0.  0.  0.  0.  0.  0.  0.  0.  0.  0.  0.  0.  0.  0.
  0.  0.  0.  0.  0.  0.  0.  0.  0.  0.  0.  1.  0.  0.  0.  0.  0.  0.
  0.  0.  0.  0.  0.  0.  0.  0.  0.  0.  0.  0.  0.  0.  0.  0.  0.  0.
  0.  0.  0.  0.  0.  0.  0.  0.  0.  0.  0.  0.  0.  0.  0.  0.  0.  0.]", shape="box"] ;
46 -> 47 ;
48 [label="X[6] <= 0.6850\ngini = 0.5\nsamples = 2", shape="box"] ;
46 -> 48 ;
49 [label="gini = 0.0000\nsamples = 1\nvalue = [ 0.  0.  0.  0.  0.  0.  0.  0.  0.  0.  0.  0.  0.  0.  0.  0.  0.  1.
  0.  0.  0.  0.  0.  0.  0.  0.  0.  0.  0.  0.  0.  0.  0.  0.  0.  0.
  0.  0.  0.  0.  0.  0.  0.  0.  0.  0.  0.  0.  0.  0.  0.  0.  0.  0.
  0.  0.  0.  0.  0.  0.  0.  0.  0.  0.  0.  0.  0.  0.  0.  0.  0.  0.]", shape="box"] ;
48 -> 49 ;
50 [label="gini = 0.0000\nsamples = 1\nvalue = [ 0.  0.  0.  0.  0.  0.  0.  0.  0.  0.  1.  0.  0.  0.  0.  0.  0.  0.
  0.  0.  0.  0.  0.  0.  0.  0.  0.  0.  0.  0.  0.  0.  0.  0.  0.  0.
  0.  0.  0.  0.  0.  0.  0.  0.  0.  0.  0.  0.  0.  0.  0.  0.  0.  0.
  0.  0.  0.  0.  0.  0.  0.  0.  0.  0.  0.  0.  0.  0.  0.  0.  0.  0.]", shape="box"] ;
48 -> 50 ;
51 [label="X[5] <= 0.3172\ngini = 0.978185595568\nsamples = 76", shape="box"] ;
43 -> 51 ;
52 [label="X[3] <= 0.5265\ngini = 0.919667590028\nsamples = 19", shape="box"] ;
51 -> 52 ;
53 [label="X[1] <= 9.3180\ngini = 0.913494809689\nsamples = 17", shape="box"] ;
52 -> 53 ;
54 [label="X[9] <= 0.2745\ngini = 0.444444444444\nsamples = 3", shape="box"] ;
53 -> 54 ;
55 [label="gini = 0.0000\nsamples = 2\nvalue = [ 0.  0.  0.  0.  0.  0.  0.  0.  0.  0.  0.  0.  0.  0.  0.  0.  0.  0.
  0.  0.  0.  0.  0.  0.  0.  0.  0.  0.  0.  0.  0.  0.  0.  0.  0.  0.
  0.  0.  0.  0.  0.  0.  0.  0.  0.  0.  0.  0.  0.  0.  0.  0.  0.  0.
  0.  0.  0.  0.  0.  0.  0.  2.  0.  0.  0.  0.  0.  0.  0.  0.  0.  0.]", shape="box"] ;
54 -> 55 ;
56 [label="gini = 0.0000\nsamples = 1\nvalue = [ 0.  0.  0.  0.  0.  0.  0.  0.  0.  0.  0.  0.  0.  0.  0.  0.  0.  0.
  0.  0.  0.  0.  0.  0.  0.  0.  0.  0.  0.  0.  0.  0.  0.  0.  0.  0.
  0.  0.  0.  0.  0.  0.  0.  0.  0.  0.  0.  0.  1.  0.  0.  0.  0.  0.
  0.  0.  0.  0.  0.  0.  0.  0.  0.  0.  0.  0.  0.  0.  0.  0.  0.  0.]", shape="box"] ;
54 -> 56 ;
57 [label="X[1] <= 10.4591\ngini = 0.897959183673\nsamples = 14", shape="box"] ;
53 -> 57 ;
58 [label="X[1] <= 9.9224\ngini = 0.78125\nsamples = 8", shape="box"] ;
57 -> 58 ;
59 [label="X[0] <= -0.5814\ngini = 0.75\nsamples = 4", shape="box"] ;
58 -> 59 ;
60 [label="gini = 0.0000\nsamples = 1\nvalue = [ 0.  0.  0.  0.  0.  0.  0.  0.  0.  1.  0.  0.  0.  0.  0.  0.  0.  0.
  0.  0.  0.  0.  0.  0.  0.  0.  0.  0.  0.  0.  0.  0.  0.  0.  0.  0.
  0.  0.  0.  0.  0.  0.  0.  0.  0.  0.  0.  0.  0.  0.  0.  0.  0.  0.
  0.  0.  0.  0.  0.  0.  0.  0.  0.  0.  0.  0.  0.  0.  0.  0.  0.  0.]", shape="box"] ;
59 -> 60 ;
61 [label="X[8] <= -0.7437\ngini = 0.666666666667\nsamples = 3", shape="box"] ;
59 -> 61 ;
62 [label="gini = 0.0000\nsamples = 1\nvalue = [ 0.  0.  0.  0.  0.  0.  0.  0.  0.  0.  0.  0.  0.  0.  0.  0.  0.  0.
  0.  0.  0.  0.  0.  0.  0.  0.  0.  0.  0.  0.  0.  0.  0.  0.  0.  0.
  0.  0.  0.  0.  0.  0.  0.  0.  0.  0.  0.  0.  0.  0.  0.  0.  0.  0.
  1.  0.  0.  0.  0.  0.  0.  0.  0.  0.  0.  0.  0.  0.  0.  0.  0.  0.]", shape="box"] ;
61 -> 62 ;
63 [label="X[6] <= 0.3748\ngini = 0.5\nsamples = 2", shape="box"] ;
61 -> 63 ;
64 [label="gini = 0.0000\nsamples = 1\nvalue = [ 0.  0.  0.  0.  0.  0.  0.  0.  1.  0.  0.  0.  0.  0.  0.  0.  0.  0.
  0.  0.  0.  0.  0.  0.  0.  0.  0.  0.  0.  0.  0.  0.  0.  0.  0.  0.
  0.  0.  0.  0.  0.  0.  0.  0.  0.  0.  0.  0.  0.  0.  0.  0.  0.  0.
  0.  0.  0.  0.  0.  0.  0.  0.  0.  0.  0.  0.  0.  0.  0.  0.  0.  0.]", shape="box"] ;
63 -> 64 ;
65 [label="gini = 0.0000\nsamples = 1\nvalue = [ 0.  0.  0.  0.  0.  0.  0.  0.  0.  0.  0.  0.  0.  0.  0.  0.  0.  0.
  0.  0.  0.  0.  0.  0.  0.  0.  0.  0.  0.  0.  0.  0.  0.  0.  0.  0.
  0.  0.  0.  0.  0.  0.  0.  0.  0.  0.  0.  0.  0.  0.  0.  0.  0.  0.
  0.  0.  0.  0.  0.  0.  0.  0.  0.  0.  0.  1.  0.  0.  0.  0.  0.  0.]", shape="box"] ;
63 -> 65 ;
66 [label="X[3] <= 0.4792\ngini = 0.375\nsamples = 4", shape="box"] ;
58 -> 66 ;
67 [label="gini = 0.0000\nsamples = 3\nvalue = [ 0.  0.  0.  0.  0.  0.  0.  0.  0.  0.  0.  0.  0.  0.  0.  0.  0.  0.
  0.  0.  0.  0.  0.  0.  0.  0.  0.  0.  0.  0.  0.  0.  0.  0.  0.  0.
  0.  0.  0.  0.  0.  0.  0.  0.  0.  0.  0.  0.  0.  0.  0.  0.  0.  0.
  0.  0.  0.  0.  0.  0.  3.  0.  0.  0.  0.  0.  0.  0.  0.  0.  0.  0.]", shape="box"] ;
66 -> 67 ;
68 [label="gini = 0.0000\nsamples = 1\nvalue = [ 0.  0.  0.  0.  0.  0.  0.  0.  0.  0.  0.  0.  0.  0.  0.  0.  0.  0.
  0.  0.  0.  0.  0.  0.  0.  0.  0.  0.  0.  0.  0.  0.  0.  0.  0.  0.
  0.  0.  0.  0.  0.  0.  0.  0.  0.  0.  0.  0.  0.  0.  0.  0.  0.  0.
  0.  0.  0.  0.  0.  0.  0.  0.  0.  0.  0.  0.  0.  1.  0.  0.  0.  0.]", shape="box"] ;
66 -> 68 ;
69 [label="X[4] <= 0.3648\ngini = 0.833333333333\nsamples = 6", shape="box"] ;
57 -> 69 ;
70 [label="X[0] <= 0.3163\ngini = 0.75\nsamples = 4", shape="box"] ;
69 -> 70 ;
71 [label="gini = 0.0000\nsamples = 1\nvalue = [ 0.  0.  1.  0.  0.  0.  0.  0.  0.  0.  0.  0.  0.  0.  0.  0.  0.  0.
  0.  0.  0.  0.  0.  0.  0.  0.  0.  0.  0.  0.  0.  0.  0.  0.  0.  0.
  0.  0.  0.  0.  0.  0.  0.  0.  0.  0.  0.  0.  0.  0.  0.  0.  0.  0.
  0.  0.  0.  0.  0.  0.  0.  0.  0.  0.  0.  0.  0.  0.  0.  0.  0.  0.]", shape="box"] ;
70 -> 71 ;
72 [label="X[4] <= 0.2966\ngini = 0.666666666667\nsamples = 3", shape="box"] ;
70 -> 72 ;
73 [label="gini = 0.0000\nsamples = 1\nvalue = [ 0.  0.  0.  0.  0.  1.  0.  0.  0.  0.  0.  0.  0.  0.  0.  0.  0.  0.
  0.  0.  0.  0.  0.  0.  0.  0.  0.  0.  0.  0.  0.  0.  0.  0.  0.  0.
  0.  0.  0.  0.  0.  0.  0.  0.  0.  0.  0.  0.  0.  0.  0.  0.  0.  0.
  0.  0.  0.  0.  0.  0.  0.  0.  0.  0.  0.  0.  0.  0.  0.  0.  0.  0.]", shape="box"] ;
72 -> 73 ;
74 [label="X[3] <= 0.2636\ngini = 0.5\nsamples = 2", shape="box"] ;
72 -> 74 ;
75 [label="gini = 0.0000\nsamples = 1\nvalue = [ 0.  0.  0.  0.  0.  0.  0.  0.  0.  0.  0.  0.  0.  0.  0.  0.  0.  0.
  0.  0.  0.  0.  0.  0.  0.  0.  0.  0.  0.  0.  0.  0.  0.  0.  0.  0.
  0.  0.  0.  0.  0.  0.  1.  0.  0.  0.  0.  0.  0.  0.  0.  0.  0.  0.
  0.  0.  0.  0.  0.  0.  0.  0.  0.  0.  0.  0.  0.  0.  0.  0.  0.  0.]", shape="box"] ;
74 -> 75 ;
76 [label="gini = 0.0000\nsamples = 1\nvalue = [ 0.  0.  0.  0.  0.  0.  0.  0.  0.  0.  0.  0.  0.  0.  0.  0.  0.  0.
  0.  0.  0.  0.  0.  0.  0.  0.  0.  0.  0.  0.  0.  0.  0.  0.  0.  0.
  0.  0.  0.  0.  0.  0.  0.  0.  0.  0.  0.  0.  0.  0.  0.  0.  0.  0.
  0.  0.  0.  0.  0.  0.  0.  0.  0.  0.  1.  0.  0.  0.  0.  0.  0.  0.]", shape="box"] ;
74 -> 76 ;
77 [label="X[10] <= 0.5534\ngini = 0.5\nsamples = 2", shape="box"] ;
69 -> 77 ;
78 [label="gini = 0.0000\nsamples = 1\nvalue = [ 0.  1.  0.  0.  0.  0.  0.  0.  0.  0.  0.  0.  0.  0.  0.  0.  0.  0.
  0.  0.  0.  0.  0.  0.  0.  0.  0.  0.  0.  0.  0.  0.  0.  0.  0.  0.
  0.  0.  0.  0.  0.  0.  0.  0.  0.  0.  0.  0.  0.  0.  0.  0.  0.  0.
  0.  0.  0.  0.  0.  0.  0.  0.  0.  0.  0.  0.  0.  0.  0.  0.  0.  0.]", shape="box"] ;
77 -> 78 ;
79 [label="gini = 0.0000\nsamples = 1\nvalue = [ 0.  0.  0.  0.  0.  0.  0.  0.  0.  0.  0.  0.  0.  0.  0.  0.  0.  1.
  0.  0.  0.  0.  0.  0.  0.  0.  0.  0.  0.  0.  0.  0.  0.  0.  0.  0.
  0.  0.  0.  0.  0.  0.  0.  0.  0.  0.  0.  0.  0.  0.  0.  0.  0.  0.
  0.  0.  0.  0.  0.  0.  0.  0.  0.  0.  0.  0.  0.  0.  0.  0.  0.  0.]", shape="box"] ;
77 -> 79 ;
80 [label="gini = 0.0000\nsamples = 2\nvalue = [ 0.  0.  0.  0.  0.  0.  0.  0.  0.  0.  0.  0.  0.  0.  0.  0.  0.  0.
  0.  2.  0.  0.  0.  0.  0.  0.  0.  0.  0.  0.  0.  0.  0.  0.  0.  0.
  0.  0.  0.  0.  0.  0.  0.  0.  0.  0.  0.  0.  0.  0.  0.  0.  0.  0.
  0.  0.  0.  0.  0.  0.  0.  0.  0.  0.  0.  0.  0.  0.  0.  0.  0.  0.]", shape="box"] ;
52 -> 80 ;
81 [label="X[4] <= 0.5892\ngini = 0.973222530009\nsamples = 57", shape="box"] ;
51 -> 81 ;
82 [label="X[9] <= 0.1904\ngini = 0.961218836565\nsamples = 38", shape="box"] ;
81 -> 82 ;
83 [label="X[11] <= 0.3959\ngini = 0.72\nsamples = 5", shape="box"] ;
82 -> 83 ;
84 [label="gini = 0.0000\nsamples = 2\nvalue = [ 0.  0.  0.  0.  0.  0.  0.  0.  0.  0.  0.  0.  0.  0.  0.  0.  0.  0.
  0.  0.  0.  0.  0.  0.  0.  0.  0.  0.  0.  0.  0.  0.  0.  0.  0.  0.
  0.  0.  0.  0.  2.  0.  0.  0.  0.  0.  0.  0.  0.  0.  0.  0.  0.  0.
  0.  0.  0.  0.  0.  0.  0.  0.  0.  0.  0.  0.  0.  0.  0.  0.  0.  0.]", shape="box"] ;
83 -> 84 ;
85 [label="X[2] <= 0.3205\ngini = 0.666666666667\nsamples = 3", shape="box"] ;
83 -> 85 ;
86 [label="gini = 0.0000\nsamples = 1\nvalue = [ 0.  0.  0.  0.  0.  0.  0.  0.  0.  0.  0.  0.  0.  0.  0.  0.  0.  0.
  0.  0.  0.  0.  0.  0.  0.  0.  0.  0.  0.  0.  0.  0.  0.  0.  0.  0.
  0.  0.  0.  0.  0.  0.  0.  0.  0.  0.  0.  0.  0.  0.  0.  0.  0.  0.
  0.  0.  0.  0.  0.  0.  0.  0.  0.  0.  0.  0.  0.  0.  0.  0.  1.  0.]", shape="box"] ;
85 -> 86 ;
87 [label="X[9] <= 0.1365\ngini = 0.5\nsamples = 2", shape="box"] ;
85 -> 87 ;
88 [label="gini = 0.0000\nsamples = 1\nvalue = [ 0.  0.  0.  0.  0.  0.  0.  0.  0.  0.  0.  0.  0.  0.  0.  0.  0.  0.
  0.  0.  0.  0.  0.  0.  0.  0.  0.  0.  0.  0.  0.  0.  0.  0.  0.  0.
  0.  0.  0.  0.  0.  0.  0.  0.  0.  0.  0.  0.  0.  0.  0.  0.  0.  0.
  0.  0.  0.  1.  0.  0.  0.  0.  0.  0.  0.  0.  0.  0.  0.  0.  0.  0.]", shape="box"] ;
87 -> 88 ;
89 [label="gini = 0.0000\nsamples = 1\nvalue = [ 0.  0.  0.  0.  0.  0.  0.  0.  0.  0.  0.  0.  0.  0.  0.  0.  0.  0.
  1.  0.  0.  0.  0.  0.  0.  0.  0.  0.  0.  0.  0.  0.  0.  0.  0.  0.
  0.  0.  0.  0.  0.  0.  0.  0.  0.  0.  0.  0.  0.  0.  0.  0.  0.  0.
  0.  0.  0.  0.  0.  0.  0.  0.  0.  0.  0.  0.  0.  0.  0.  0.  0.  0.]", shape="box"] ;
87 -> 89 ;
90 [label="X[6] <= 0.1394\ngini = 0.955004591368\nsamples = 33", shape="box"] ;
82 -> 90 ;
91 [label="X[10] <= 0.3182\ngini = 0.8125\nsamples = 8", shape="box"] ;
90 -> 91 ;
92 [label="X[1] <= 8.6214\ngini = 0.75\nsamples = 4", shape="box"] ;
91 -> 92 ;
93 [label="gini = 0.0000\nsamples = 1\nvalue = [ 0.  0.  0.  0.  0.  0.  0.  0.  0.  0.  0.  0.  0.  0.  0.  1.  0.  0.
  0.  0.  0.  0.  0.  0.  0.  0.  0.  0.  0.  0.  0.  0.  0.  0.  0.  0.
  0.  0.  0.  0.  0.  0.  0.  0.  0.  0.  0.  0.  0.  0.  0.  0.  0.  0.
  0.  0.  0.  0.  0.  0.  0.  0.  0.  0.  0.  0.  0.  0.  0.  0.  0.  0.]", shape="box"] ;
92 -> 93 ;
94 [label="X[10] <= 0.2277\ngini = 0.666666666667\nsamples = 3", shape="box"] ;
92 -> 94 ;
95 [label="gini = 0.0000\nsamples = 1\nvalue = [ 0.  0.  0.  0.  0.  0.  0.  0.  0.  0.  0.  0.  0.  0.  0.  0.  0.  0.
  0.  0.  0.  0.  0.  0.  0.  0.  0.  0.  1.  0.  0.  0.  0.  0.  0.  0.
  0.  0.  0.  0.  0.  0.  0.  0.  0.  0.  0.  0.  0.  0.  0.  0.  0.  0.
  0.  0.  0.  0.  0.  0.  0.  0.  0.  0.  0.  0.  0.  0.  0.  0.  0.  0.]", shape="box"] ;
94 -> 95 ;
96 [label="X[7] <= 9.5975\ngini = 0.5\nsamples = 2", shape="box"] ;
94 -> 96 ;
97 [label="gini = 0.0000\nsamples = 1\nvalue = [ 0.  0.  0.  0.  0.  0.  0.  0.  0.  0.  0.  0.  0.  0.  0.  0.  0.  0.
  0.  0.  0.  0.  0.  0.  0.  0.  0.  0.  0.  0.  0.  0.  0.  0.  0.  0.
  0.  0.  0.  1.  0.  0.  0.  0.  0.  0.  0.  0.  0.  0.  0.  0.  0.  0.
  0.  0.  0.  0.  0.  0.  0.  0.  0.  0.  0.  0.  0.  0.  0.  0.  0.  0.]", shape="box"] ;
96 -> 97 ;
98 [label="gini = 0.0000\nsamples = 1\nvalue = [ 0.  0.  0.  0.  0.  0.  0.  0.  0.  0.  0.  0.  0.  0.  0.  0.  0.  0.
  0.  0.  0.  0.  0.  0.  0.  0.  0.  0.  0.  0.  0.  1.  0.  0.  0.  0.
  0.  0.  0.  0.  0.  0.  0.  0.  0.  0.  0.  0.  0.  0.  0.  0.  0.  0.
  0.  0.  0.  0.  0.  0.  0.  0.  0.  0.  0.  0.  0.  0.  0.  0.  0.  0.]", shape="box"] ;
96 -> 98 ;
99 [label="X[1] <= 7.8046\ngini = 0.5\nsamples = 4", shape="box"] ;
91 -> 99 ;
100 [label="gini = 0.0000\nsamples = 1\nvalue = [ 0.  0.  0.  0.  0.  0.  0.  0.  0.  0.  0.  0.  0.  0.  0.  0.  0.  0.
  0.  0.  0.  0.  0.  0.  0.  0.  0.  0.  0.  0.  0.  0.  0.  0.  0.  0.
  0.  0.  0.  0.  0.  0.  0.  0.  0.  0.  0.  0.  0.  0.  0.  0.  0.  1.
  0.  0.  0.  0.  0.  0.  0.  0.  0.  0.  0.  0.  0.  0.  0.  0.  0.  0.]", shape="box"] ;
99 -> 100 ;
101 [label="X[9] <= 0.3781\ngini = 0.444444444444\nsamples = 3", shape="box"] ;
99 -> 101 ;
102 [label="gini = 0.0000\nsamples = 2\nvalue = [ 0.  0.  0.  0.  0.  0.  0.  0.  0.  0.  0.  0.  0.  0.  0.  0.  0.  0.
  0.  0.  0.  0.  0.  0.  0.  0.  0.  0.  0.  0.  0.  0.  0.  0.  0.  0.
  0.  0.  0.  0.  0.  0.  0.  0.  0.  0.  0.  0.  0.  0.  0.  0.  0.  0.
  0.  0.  0.  0.  0.  0.  0.  0.  2.  0.  0.  0.  0.  0.  0.  0.  0.  0.]", shape="box"] ;
101 -> 102 ;
103 [label="gini = 0.0000\nsamples = 1\nvalue = [ 0.  0.  0.  0.  0.  0.  0.  0.  0.  0.  0.  0.  0.  0.  0.  0.  0.  0.
  0.  0.  0.  0.  0.  0.  0.  0.  0.  0.  0.  0.  0.  0.  0.  0.  0.  0.
  0.  0.  0.  0.  0.  0.  0.  0.  0.  0.  0.  0.  0.  0.  0.  0.  0.  1.
  0.  0.  0.  0.  0.  0.  0.  0.  0.  0.  0.  0.  0.  0.  0.  0.  0.  0.]", shape="box"] ;
101 -> 103 ;
104 [label="X[1] <= 10.0238\ngini = 0.944\nsamples = 25", shape="box"] ;
90 -> 104 ;
105 [label="X[9] <= 0.2842\ngini = 0.936288088643\nsamples = 19", shape="box"] ;
104 -> 105 ;
106 [label="X[11] <= 0.3730\ngini = 0.72\nsamples = 5", shape="box"] ;
105 -> 106 ;
107 [label="gini = 0.0000\nsamples = 2\nvalue = [ 0.  0.  0.  0.  0.  0.  0.  0.  0.  0.  0.  0.  0.  0.  0.  0.  0.  0.
  0.  0.  0.  0.  0.  0.  0.  0.  0.  0.  0.  0.  0.  0.  0.  0.  0.  0.
  0.  0.  0.  0.  0.  0.  0.  2.  0.  0.  0.  0.  0.  0.  0.  0.  0.  0.
  0.  0.  0.  0.  0.  0.  0.  0.  0.  0.  0.  0.  0.  0.  0.  0.  0.  0.]", shape="box"] ;
106 -> 107 ;
108 [label="X[2] <= -0.5863\ngini = 0.666666666667\nsamples = 3", shape="box"] ;
106 -> 108 ;
109 [label="gini = 0.0000\nsamples = 1\nvalue = [ 0.  0.  0.  0.  0.  0.  0.  0.  0.  0.  0.  0.  0.  0.  0.  0.  0.  0.
  0.  0.  0.  0.  0.  0.  0.  0.  0.  0.  1.  0.  0.  0.  0.  0.  0.  0.
  0.  0.  0.  0.  0.  0.  0.  0.  0.  0.  0.  0.  0.  0.  0.  0.  0.  0.
  0.  0.  0.  0.  0.  0.  0.  0.  0.  0.  0.  0.  0.  0.  0.  0.  0.  0.]", shape="box"] ;
108 -> 109 ;
110 [label="X[9] <= 0.2277\ngini = 0.5\nsamples = 2", shape="box"] ;
108 -> 110 ;
111 [label="gini = 0.0000\nsamples = 1\nvalue = [ 0.  0.  0.  0.  0.  0.  0.  0.  0.  0.  0.  0.  0.  0.  0.  0.  0.  0.
  0.  0.  0.  0.  0.  0.  0.  0.  0.  0.  0.  0.  0.  0.  0.  0.  0.  0.
  0.  0.  0.  0.  0.  0.  0.  0.  0.  0.  0.  0.  0.  0.  0.  0.  0.  0.
  0.  0.  0.  0.  0.  0.  0.  0.  0.  0.  0.  0.  0.  0.  1.  0.  0.  0.]", shape="box"] ;
110 -> 111 ;
112 [label="gini = 0.0000\nsamples = 1\nvalue = [ 0.  0.  0.  0.  0.  1.  0.  0.  0.  0.  0.  0.  0.  0.  0.  0.  0.  0.
  0.  0.  0.  0.  0.  0.  0.  0.  0.  0.  0.  0.  0.  0.  0.  0.  0.  0.
  0.  0.  0.  0.  0.  0.  0.  0.  0.  0.  0.  0.  0.  0.  0.  0.  0.  0.
  0.  0.  0.  0.  0.  0.  0.  0.  0.  0.  0.  0.  0.  0.  0.  0.  0.  0.]", shape="box"] ;
110 -> 112 ;
113 [label="X[5] <= 0.5075\ngini = 0.918367346939\nsamples = 14", shape="box"] ;
105 -> 113 ;
114 [label="X[3] <= 0.3040\ngini = 0.888888888889\nsamples = 9", shape="box"] ;
113 -> 114 ;
115 [label="gini = 0.0000\nsamples = 1\nvalue = [ 0.  0.  0.  0.  0.  0.  1.  0.  0.  0.  0.  0.  0.  0.  0.  0.  0.  0.
  0.  0.  0.  0.  0.  0.  0.  0.  0.  0.  0.  0.  0.  0.  0.  0.  0.  0.
  0.  0.  0.  0.  0.  0.  0.  0.  0.  0.  0.  0.  0.  0.  0.  0.  0.  0.
  0.  0.  0.  0.  0.  0.  0.  0.  0.  0.  0.  0.  0.  0.  0.  0.  0.  0.]", shape="box"] ;
114 -> 115 ;
116 [label="X[0] <= 0.1090\ngini = 0.875\nsamples = 8", shape="box"] ;
114 -> 116 ;
117 [label="gini = 0.0000\nsamples = 1\nvalue = [ 0.  0.  0.  0.  0.  0.  0.  0.  0.  0.  0.  0.  0.  0.  0.  0.  0.  0.
  0.  0.  0.  0.  0.  0.  0.  0.  0.  0.  0.  0.  0.  0.  0.  0.  0.  0.
  0.  0.  0.  0.  0.  0.  0.  0.  0.  0.  0.  1.  0.  0.  0.  0.  0.  0.
  0.  0.  0.  0.  0.  0.  0.  0.  0.  0.  0.  0.  0.  0.  0.  0.  0.  0.]", shape="box"] ;
116 -> 117 ;
118 [label="X[3] <= 0.3217\ngini = 0.857142857143\nsamples = 7", shape="box"] ;
116 -> 118 ;
119 [label="gini = 0.0000\nsamples = 1\nvalue = [ 0.  0.  0.  0.  0.  0.  0.  0.  0.  0.  0.  0.  0.  0.  0.  0.  0.  0.
  0.  0.  0.  0.  0.  0.  0.  0.  0.  0.  0.  0.  0.  0.  0.  0.  0.  0.
  0.  1.  0.  0.  0.  0.  0.  0.  0.  0.  0.  0.  0.  0.  0.  0.  0.  0.
  0.  0.  0.  0.  0.  0.  0.  0.  0.  0.  0.  0.  0.  0.  0.  0.  0.  0.]", shape="box"] ;
118 -> 119 ;
120 [label="X[10] <= 0.5061\ngini = 0.833333333333\nsamples = 6", shape="box"] ;
118 -> 120 ;
121 [label="X[6] <= 0.3023\ngini = 0.75\nsamples = 4", shape="box"] ;
120 -> 121 ;
122 [label="gini = 0.0000\nsamples = 1\nvalue = [ 0.  0.  0.  0.  0.  0.  0.  0.  0.  0.  0.  0.  0.  0.  0.  0.  0.  0.
  0.  0.  0.  0.  0.  0.  0.  0.  0.  0.  0.  0.  0.  0.  0.  0.  0.  0.
  0.  0.  0.  0.  0.  1.  0.  0.  0.  0.  0.  0.  0.  0.  0.  0.  0.  0.
  0.  0.  0.  0.  0.  0.  0.  0.  0.  0.  0.  0.  0.  0.  0.  0.  0.  0.]", shape="box"] ;
121 -> 122 ;
123 [label="X[11] <= 0.4315\ngini = 0.666666666667\nsamples = 3", shape="box"] ;
121 -> 123 ;
124 [label="gini = 0.0000\nsamples = 1\nvalue = [ 0.  0.  0.  0.  0.  0.  0.  0.  0.  0.  0.  0.  0.  0.  0.  0.  0.  0.
  0.  0.  0.  0.  0.  0.  0.  0.  0.  0.  0.  0.  0.  0.  0.  0.  0.  0.
  0.  0.  0.  0.  0.  0.  0.  0.  0.  0.  0.  0.  0.  0.  0.  1.  0.  0.
  0.  0.  0.  0.  0.  0.  0.  0.  0.  0.  0.  0.  0.  0.  0.  0.  0.  0.]", shape="box"] ;
123 -> 124 ;
125 [label="X[7] <= 8.3755\ngini = 0.5\nsamples = 2", shape="box"] ;
123 -> 125 ;
126 [label="gini = 0.0000\nsamples = 1\nvalue = [ 0.  0.  0.  0.  0.  0.  0.  0.  0.  0.  0.  0.  0.  0.  0.  0.  0.  0.
  0.  0.  0.  0.  0.  0.  0.  0.  0.  0.  0.  0.  0.  0.  0.  0.  0.  0.
  0.  0.  0.  0.  0.  0.  0.  0.  0.  0.  0.  0.  0.  0.  0.  0.  0.  0.
  0.  0.  0.  0.  0.  0.  0.  0.  0.  0.  0.  0.  0.  0.  0.  0.  0.  1.]", shape="box"] ;
125 -> 126 ;
127 [label="gini = 0.0000\nsamples = 1\nvalue = [ 0.  0.  0.  0.  0.  0.  0.  0.  0.  0.  0.  0.  0.  0.  0.  0.  0.  0.
  0.  0.  0.  0.  0.  0.  0.  0.  0.  0.  0.  0.  0.  0.  0.  0.  0.  0.
  1.  0.  0.  0.  0.  0.  0.  0.  0.  0.  0.  0.  0.  0.  0.  0.  0.  0.
  0.  0.  0.  0.  0.  0.  0.  0.  0.  0.  0.  0.  0.  0.  0.  0.  0.  0.]", shape="box"] ;
125 -> 127 ;
128 [label="X[8] <= -1.1735\ngini = 0.5\nsamples = 2", shape="box"] ;
120 -> 128 ;
129 [label="gini = 0.0000\nsamples = 1\nvalue = [ 0.  0.  0.  0.  0.  0.  0.  0.  0.  0.  0.  0.  0.  0.  0.  0.  0.  0.
  0.  0.  0.  0.  0.  0.  0.  0.  0.  0.  0.  0.  0.  0.  0.  0.  0.  0.
  0.  0.  0.  0.  0.  0.  0.  0.  0.  0.  0.  0.  0.  0.  0.  0.  0.  0.
  1.  0.  0.  0.  0.  0.  0.  0.  0.  0.  0.  0.  0.  0.  0.  0.  0.  0.]", shape="box"] ;
128 -> 129 ;
130 [label="gini = 0.0000\nsamples = 1\nvalue = [ 0.  0.  0.  0.  0.  0.  0.  0.  0.  0.  0.  0.  0.  0.  0.  0.  0.  0.
  0.  0.  0.  0.  0.  0.  0.  0.  0.  0.  0.  1.  0.  0.  0.  0.  0.  0.
  0.  0.  0.  0.  0.  0.  0.  0.  0.  0.  0.  0.  0.  0.  0.  0.  0.  0.
  0.  0.  0.  0.  0.  0.  0.  0.  0.  0.  0.  0.  0.  0.  0.  0.  0.  0.]", shape="box"] ;
128 -> 130 ;
131 [label="X[4] <= 0.4648\ngini = 0.72\nsamples = 5", shape="box"] ;
113 -> 131 ;
132 [label="X[11] <= 0.6078\ngini = 0.444444444444\nsamples = 3", shape="box"] ;
131 -> 132 ;
133 [label="gini = 0.0000\nsamples = 2\nvalue = [ 0.  0.  0.  0.  0.  0.  0.  0.  0.  0.  0.  0.  0.  0.  0.  0.  0.  0.
  0.  0.  0.  0.  0.  0.  0.  0.  0.  2.  0.  0.  0.  0.  0.  0.  0.  0.
  0.  0.  0.  0.  0.  0.  0.  0.  0.  0.  0.  0.  0.  0.  0.  0.  0.  0.
  0.  0.  0.  0.  0.  0.  0.  0.  0.  0.  0.  0.  0.  0.  0.  0.  0.  0.]", shape="box"] ;
132 -> 133 ;
134 [label="gini = 0.0000\nsamples = 1\nvalue = [ 0.  0.  0.  0.  0.  0.  0.  0.  0.  0.  0.  0.  0.  0.  0.  0.  0.  0.
  0.  0.  0.  0.  0.  0.  0.  0.  1.  0.  0.  0.  0.  0.  0.  0.  0.  0.
  0.  0.  0.  0.  0.  0.  0.  0.  0.  0.  0.  0.  0.  0.  0.  0.  0.  0.
  0.  0.  0.  0.  0.  0.  0.  0.  0.  0.  0.  0.  0.  0.  0.  0.  0.  0.]", shape="box"] ;
132 -> 134 ;
135 [label="X[3] <= 0.3098\ngini = 0.5\nsamples = 2", shape="box"] ;
131 -> 135 ;
136 [label="gini = 0.0000\nsamples = 1\nvalue = [ 0.  0.  0.  0.  0.  0.  0.  0.  0.  0.  0.  0.  0.  0.  0.  0.  0.  0.
  0.  0.  0.  0.  0.  0.  0.  0.  0.  0.  0.  0.  0.  0.  0.  0.  0.  0.
  0.  0.  0.  0.  0.  0.  0.  0.  0.  0.  0.  0.  0.  0.  1.  0.  0.  0.
  0.  0.  0.  0.  0.  0.  0.  0.  0.  0.  0.  0.  0.  0.  0.  0.  0.  0.]", shape="box"] ;
135 -> 136 ;
137 [label="gini = 0.0000\nsamples = 1\nvalue = [ 0.  0.  0.  0.  0.  0.  0.  0.  0.  0.  0.  0.  0.  0.  0.  0.  0.  0.
  0.  1.  0.  0.  0.  0.  0.  0.  0.  0.  0.  0.  0.  0.  0.  0.  0.  0.
  0.  0.  0.  0.  0.  0.  0.  0.  0.  0.  0.  0.  0.  0.  0.  0.  0.  0.
  0.  0.  0.  0.  0.  0.  0.  0.  0.  0.  0.  0.  0.  0.  0.  0.  0.  0.]", shape="box"] ;
135 -> 137 ;
138 [label="X[0] <= 0.6334\ngini = 0.722222222222\nsamples = 6", shape="box"] ;
104 -> 138 ;
139 [label="X[4] <= 0.5405\ngini = 0.444444444444\nsamples = 3", shape="box"] ;
138 -> 139 ;
140 [label="gini = 0.0000\nsamples = 2\nvalue = [ 0.  0.  0.  0.  0.  0.  0.  0.  0.  0.  0.  0.  0.  0.  0.  0.  0.  0.
  0.  0.  0.  0.  0.  0.  0.  0.  0.  0.  0.  0.  0.  0.  0.  0.  0.  0.
  0.  0.  0.  0.  0.  0.  0.  0.  0.  0.  0.  0.  0.  0.  0.  0.  0.  0.
  0.  0.  0.  0.  2.  0.  0.  0.  0.  0.  0.  0.  0.  0.  0.  0.  0.  0.]", shape="box"] ;
139 -> 140 ;
141 [label="gini = 0.0000\nsamples = 1\nvalue = [ 0.  0.  0.  0.  0.  0.  0.  0.  0.  0.  0.  0.  0.  0.  0.  0.  0.  0.
  0.  0.  0.  0.  0.  0.  0.  0.  0.  0.  0.  0.  0.  0.  0.  0.  0.  0.
  0.  0.  0.  0.  0.  0.  0.  0.  0.  0.  0.  0.  0.  0.  0.  0.  0.  0.
  0.  0.  0.  0.  0.  0.  0.  0.  0.  0.  0.  0.  0.  0.  1.  0.  0.  0.]", shape="box"] ;
139 -> 141 ;
142 [label="X[8] <= 2.2892\ngini = 0.444444444444\nsamples = 3", shape="box"] ;
138 -> 142 ;
143 [label="gini = 0.0000\nsamples = 2\nvalue = [ 0.  0.  0.  0.  0.  0.  0.  0.  0.  0.  0.  2.  0.  0.  0.  0.  0.  0.
  0.  0.  0.  0.  0.  0.  0.  0.  0.  0.  0.  0.  0.  0.  0.  0.  0.  0.
  0.  0.  0.  0.  0.  0.  0.  0.  0.  0.  0.  0.  0.  0.  0.  0.  0.  0.
  0.  0.  0.  0.  0.  0.  0.  0.  0.  0.  0.  0.  0.  0.  0.  0.  0.  0.]", shape="box"] ;
142 -> 143 ;
144 [label="gini = 0.0000\nsamples = 1\nvalue = [ 0.  0.  0.  0.  0.  0.  0.  0.  0.  0.  0.  0.  0.  0.  0.  0.  0.  0.
  0.  0.  0.  0.  0.  0.  0.  0.  0.  0.  0.  0.  0.  0.  0.  0.  0.  1.
  0.  0.  0.  0.  0.  0.  0.  0.  0.  0.  0.  0.  0.  0.  0.  0.  0.  0.
  0.  0.  0.  0.  0.  0.  0.  0.  0.  0.  0.  0.  0.  0.  0.  0.  0.  0.]", shape="box"] ;
142 -> 144 ;
145 [label="X[2] <= -2.9672\ngini = 0.925207756233\nsamples = 19", shape="box"] ;
81 -> 145 ;
146 [label="X[10] <= 0.7577\ngini = 0.444444444444\nsamples = 3", shape="box"] ;
145 -> 146 ;
147 [label="gini = 0.0000\nsamples = 2\nvalue = [ 0.  0.  0.  0.  0.  0.  0.  0.  0.  0.  0.  0.  0.  0.  0.  0.  0.  0.
  0.  0.  0.  0.  0.  0.  0.  0.  0.  0.  0.  0.  0.  0.  2.  0.  0.  0.
  0.  0.  0.  0.  0.  0.  0.  0.  0.  0.  0.  0.  0.  0.  0.  0.  0.  0.
  0.  0.  0.  0.  0.  0.  0.  0.  0.  0.  0.  0.  0.  0.  0.  0.  0.  0.]", shape="box"] ;
146 -> 147 ;
148 [label="gini = 0.0000\nsamples = 1\nvalue = [ 0.  0.  0.  0.  0.  0.  0.  0.  0.  0.  0.  0.  0.  0.  0.  0.  0.  0.
  0.  0.  0.  0.  0.  0.  0.  0.  0.  0.  0.  0.  0.  0.  0.  1.  0.  0.
  0.  0.  0.  0.  0.  0.  0.  0.  0.  0.  0.  0.  0.  0.  0.  0.  0.  0.
  0.  0.  0.  0.  0.  0.  0.  0.  0.  0.  0.  0.  0.  0.  0.  0.  0.  0.]", shape="box"] ;
146 -> 148 ;
149 [label="X[7] <= 7.6876\ngini = 0.9140625\nsamples = 16", shape="box"] ;
145 -> 149 ;
150 [label="X[1] <= 6.5584\ngini = 0.444444444444\nsamples = 3", shape="box"] ;
149 -> 150 ;
151 [label="gini = 0.0000\nsamples = 1\nvalue = [ 0.  0.  0.  0.  0.  0.  0.  0.  0.  0.  1.  0.  0.  0.  0.  0.  0.  0.
  0.  0.  0.  0.  0.  0.  0.  0.  0.  0.  0.  0.  0.  0.  0.  0.  0.  0.
  0.  0.  0.  0.  0.  0.  0.  0.  0.  0.  0.  0.  0.  0.  0.  0.  0.  0.
  0.  0.  0.  0.  0.  0.  0.  0.  0.  0.  0.  0.  0.  0.  0.  0.  0.  0.]", shape="box"] ;
150 -> 151 ;
152 [label="gini = 0.0000\nsamples = 2\nvalue = [ 0.  0.  0.  0.  0.  0.  0.  0.  0.  0.  0.  0.  0.  0.  0.  0.  0.  0.
  0.  0.  0.  0.  2.  0.  0.  0.  0.  0.  0.  0.  0.  0.  0.  0.  0.  0.
  0.  0.  0.  0.  0.  0.  0.  0.  0.  0.  0.  0.  0.  0.  0.  0.  0.  0.
  0.  0.  0.  0.  0.  0.  0.  0.  0.  0.  0.  0.  0.  0.  0.  0.  0.  0.]", shape="box"] ;
150 -> 152 ;
153 [label="X[11] <= 0.7243\ngini = 0.899408284024\nsamples = 13", shape="box"] ;
149 -> 153 ;
154 [label="X[2] <= -1.6517\ngini = 0.88\nsamples = 10", shape="box"] ;
153 -> 154 ;
155 [label="X[1] <= 8.1356\ngini = 0.444444444444\nsamples = 3", shape="box"] ;
154 -> 155 ;
156 [label="gini = 0.0000\nsamples = 1\nvalue = [ 0.  0.  0.  0.  0.  0.  0.  0.  0.  0.  0.  0.  0.  0.  0.  0.  0.  0.
  0.  0.  0.  0.  0.  0.  0.  0.  0.  0.  0.  0.  0.  0.  0.  0.  0.  0.
  0.  0.  0.  0.  0.  0.  0.  0.  0.  0.  0.  0.  0.  0.  0.  1.  0.  0.
  0.  0.  0.  0.  0.  0.  0.  0.  0.  0.  0.  0.  0.  0.  0.  0.  0.  0.]", shape="box"] ;
155 -> 156 ;
157 [label="gini = 0.0000\nsamples = 2\nvalue = [ 0.  0.  0.  0.  0.  0.  0.  0.  0.  0.  0.  0.  0.  0.  0.  0.  0.  0.
  0.  0.  0.  0.  0.  0.  0.  0.  0.  0.  0.  0.  0.  0.  0.  0.  0.  0.
  0.  0.  0.  0.  0.  0.  0.  0.  0.  0.  0.  0.  0.  0.  0.  0.  0.  0.
  0.  0.  0.  0.  0.  0.  0.  0.  0.  2.  0.  0.  0.  0.  0.  0.  0.  0.]", shape="box"] ;
155 -> 157 ;
158 [label="X[11] <= 0.2120\ngini = 0.857142857143\nsamples = 7", shape="box"] ;
154 -> 158 ;
159 [label="gini = 0.0000\nsamples = 1\nvalue = [ 0.  0.  0.  0.  0.  0.  0.  0.  0.  0.  0.  0.  0.  0.  0.  0.  0.  0.
  0.  0.  0.  0.  0.  0.  0.  0.  0.  0.  0.  0.  0.  0.  0.  0.  0.  0.
  0.  0.  0.  0.  0.  0.  0.  0.  0.  0.  0.  0.  0.  0.  0.  0.  1.  0.
  0.  0.  0.  0.  0.  0.  0.  0.  0.  0.  0.  0.  0.  0.  0.  0.  0.  0.]", shape="box"] ;
158 -> 159 ;
160 [label="X[1] <= 10.2883\ngini = 0.833333333333\nsamples = 6", shape="box"] ;
158 -> 160 ;
161 [label="X[7] <= 8.6349\ngini = 0.75\nsamples = 4", shape="box"] ;
160 -> 161 ;
162 [label="gini = 0.0000\nsamples = 1\nvalue = [ 0.  0.  0.  0.  0.  0.  0.  0.  0.  0.  0.  0.  0.  0.  0.  0.  0.  0.
  0.  0.  0.  0.  0.  1.  0.  0.  0.  0.  0.  0.  0.  0.  0.  0.  0.  0.
  0.  0.  0.  0.  0.  0.  0.  0.  0.  0.  0.  0.  0.  0.  0.  0.  0.  0.
  0.  0.  0.  0.  0.  0.  0.  0.  0.  0.  0.  0.  0.  0.  0.  0.  0.  0.]", shape="box"] ;
161 -> 162 ;
163 [label="X[1] <= 9.0893\ngini = 0.666666666667\nsamples = 3", shape="box"] ;
161 -> 163 ;
164 [label="gini = 0.0000\nsamples = 1\nvalue = [ 0.  0.  0.  0.  0.  0.  0.  0.  0.  0.  0.  0.  0.  0.  0.  0.  0.  0.
  0.  0.  0.  1.  0.  0.  0.  0.  0.  0.  0.  0.  0.  0.  0.  0.  0.  0.
  0.  0.  0.  0.  0.  0.  0.  0.  0.  0.  0.  0.  0.  0.  0.  0.  0.  0.
  0.  0.  0.  0.  0.  0.  0.  0.  0.  0.  0.  0.  0.  0.  0.  0.  0.  0.]", shape="box"] ;
163 -> 164 ;
165 [label="X[1] <= 9.7284\ngini = 0.5\nsamples = 2", shape="box"] ;
163 -> 165 ;
166 [label="gini = 0.0000\nsamples = 1\nvalue = [ 0.  0.  0.  0.  0.  0.  0.  0.  0.  0.  0.  0.  0.  0.  0.  0.  0.  0.
  0.  0.  0.  0.  0.  0.  0.  0.  0.  0.  0.  0.  0.  0.  0.  0.  1.  0.
  0.  0.  0.  0.  0.  0.  0.  0.  0.  0.  0.  0.  0.  0.  0.  0.  0.  0.
  0.  0.  0.  0.  0.  0.  0.  0.  0.  0.  0.  0.  0.  0.  0.  0.  0.  0.]", shape="box"] ;
165 -> 166 ;
167 [label="gini = 0.0000\nsamples = 1\nvalue = [ 0.  0.  0.  0.  0.  0.  0.  0.  0.  1.  0.  0.  0.  0.  0.  0.  0.  0.
  0.  0.  0.  0.  0.  0.  0.  0.  0.  0.  0.  0.  0.  0.  0.  0.  0.  0.
  0.  0.  0.  0.  0.  0.  0.  0.  0.  0.  0.  0.  0.  0.  0.  0.  0.  0.
  0.  0.  0.  0.  0.  0.  0.  0.  0.  0.  0.  0.  0.  0.  0.  0.  0.  0.]", shape="box"] ;
165 -> 167 ;
168 [label="X[0] <= 0.7677\ngini = 0.5\nsamples = 2", shape="box"] ;
160 -> 168 ;
169 [label="gini = 0.0000\nsamples = 1\nvalue = [ 0.  0.  0.  0.  0.  0.  0.  1.  0.  0.  0.  0.  0.  0.  0.  0.  0.  0.
  0.  0.  0.  0.  0.  0.  0.  0.  0.  0.  0.  0.  0.  0.  0.  0.  0.  0.
  0.  0.  0.  0.  0.  0.  0.  0.  0.  0.  0.  0.  0.  0.  0.  0.  0.  0.
  0.  0.  0.  0.  0.  0.  0.  0.  0.  0.  0.  0.  0.  0.  0.  0.  0.  0.]", shape="box"] ;
168 -> 169 ;
170 [label="gini = 0.0000\nsamples = 1\nvalue = [ 0.  0.  0.  0.  0.  0.  0.  0.  0.  0.  0.  0.  0.  0.  0.  1.  0.  0.
  0.  0.  0.  0.  0.  0.  0.  0.  0.  0.  0.  0.  0.  0.  0.  0.  0.  0.
  0.  0.  0.  0.  0.  0.  0.  0.  0.  0.  0.  0.  0.  0.  0.  0.  0.  0.
  0.  0.  0.  0.  0.  0.  0.  0.  0.  0.  0.  0.  0.  0.  0.  0.  0.  0.]", shape="box"] ;
168 -> 170 ;
171 [label="X[7] <= 9.1572\ngini = 0.444444444444\nsamples = 3", shape="box"] ;
153 -> 171 ;
172 [label="gini = 0.0000\nsamples = 1\nvalue = [ 0.  0.  0.  0.  0.  0.  0.  0.  0.  0.  0.  0.  1.  0.  0.  0.  0.  0.
  0.  0.  0.  0.  0.  0.  0.  0.  0.  0.  0.  0.  0.  0.  0.  0.  0.  0.
  0.  0.  0.  0.  0.  0.  0.  0.  0.  0.  0.  0.  0.  0.  0.  0.  0.  0.
  0.  0.  0.  0.  0.  0.  0.  0.  0.  0.  0.  0.  0.  0.  0.  0.  0.  0.]", shape="box"] ;
171 -> 172 ;
173 [label="gini = 0.0000\nsamples = 2\nvalue = [ 0.  0.  0.  0.  0.  0.  0.  0.  0.  0.  0.  0.  0.  0.  0.  0.  0.  0.
  0.  0.  0.  0.  0.  0.  0.  2.  0.  0.  0.  0.  0.  0.  0.  0.  0.  0.
  0.  0.  0.  0.  0.  0.  0.  0.  0.  0.  0.  0.  0.  0.  0.  0.  0.  0.
  0.  0.  0.  0.  0.  0.  0.  0.  0.  0.  0.  0.  0.  0.  0.  0.  0.  0.]", shape="box"] ;
171 -> 173 ;
174 [label="X[9] <= 0.3961\ngini = 0.625\nsamples = 4", shape="box"] ;
42 -> 174 ;
175 [label="X[8] <= 1.1249\ngini = 0.5\nsamples = 2", shape="box"] ;
174 -> 175 ;
176 [label="gini = 0.0000\nsamples = 1\nvalue = [ 0.  0.  1.  0.  0.  0.  0.  0.  0.  0.  0.  0.  0.  0.  0.  0.  0.  0.
  0.  0.  0.  0.  0.  0.  0.  0.  0.  0.  0.  0.  0.  0.  0.  0.  0.  0.
  0.  0.  0.  0.  0.  0.  0.  0.  0.  0.  0.  0.  0.  0.  0.  0.  0.  0.
  0.  0.  0.  0.  0.  0.  0.  0.  0.  0.  0.  0.  0.  0.  0.  0.  0.  0.]", shape="box"] ;
175 -> 176 ;
177 [label="gini = 0.0000\nsamples = 1\nvalue = [ 0.  0.  0.  0.  0.  0.  0.  0.  0.  0.  0.  0.  0.  0.  0.  0.  0.  0.
  0.  0.  0.  0.  0.  0.  0.  0.  0.  0.  0.  0.  0.  0.  0.  0.  0.  0.
  0.  0.  0.  0.  0.  1.  0.  0.  0.  0.  0.  0.  0.  0.  0.  0.  0.  0.
  0.  0.  0.  0.  0.  0.  0.  0.  0.  0.  0.  0.  0.  0.  0.  0.  0.  0.]", shape="box"] ;
175 -> 177 ;
178 [label="gini = 0.0000\nsamples = 2\nvalue = [ 0.  0.  0.  0.  0.  0.  0.  0.  0.  0.  0.  0.  0.  0.  0.  0.  0.  0.
  0.  0.  2.  0.  0.  0.  0.  0.  0.  0.  0.  0.  0.  0.  0.  0.  0.  0.
  0.  0.  0.  0.  0.  0.  0.  0.  0.  0.  0.  0.  0.  0.  0.  0.  0.  0.
  0.  0.  0.  0.  0.  0.  0.  0.  0.  0.  0.  0.  0.  0.  0.  0.  0.  0.]", shape="box"] ;
174 -> 178 ;
179 [label="X[1] <= 8.9061\ngini = 0.91156462585\nsamples = 21", shape="box"] ;
29 -> 179 ;
180 [label="X[2] <= 2.7954\ngini = 0.920415224913\nsamples = 17", shape="box"] ;
179 -> 180 ;
181 [label="X[6] <= -0.1377\ngini = 0.875\nsamples = 8", shape="box"] ;
180 -> 181 ;
182 [label="gini = 0.0000\nsamples = 1\nvalue = [ 0.  0.  0.  0.  0.  0.  0.  0.  0.  0.  0.  0.  0.  0.  0.  0.  0.  0.
  0.  0.  0.  0.  0.  0.  0.  0.  0.  0.  0.  0.  0.  0.  0.  0.  0.  0.
  0.  0.  0.  0.  0.  0.  0.  0.  0.  0.  0.  0.  0.  0.  0.  0.  0.  0.
  1.  0.  0.  0.  0.  0.  0.  0.  0.  0.  0.  0.  0.  0.  0.  0.  0.  0.]", shape="box"] ;
181 -> 182 ;
183 [label="X[2] <= -4.5640\ngini = 0.857142857143\nsamples = 7", shape="box"] ;
181 -> 183 ;
184 [label="gini = 0.0000\nsamples = 1\nvalue = [ 0.  0.  0.  0.  0.  0.  0.  0.  0.  0.  0.  0.  0.  0.  0.  0.  1.  0.
  0.  0.  0.  0.  0.  0.  0.  0.  0.  0.  0.  0.  0.  0.  0.  0.  0.  0.
  0.  0.  0.  0.  0.  0.  0.  0.  0.  0.  0.  0.  0.  0.  0.  0.  0.  0.
  0.  0.  0.  0.  0.  0.  0.  0.  0.  0.  0.  0.  0.  0.  0.  0.  0.  0.]", shape="box"] ;
183 -> 184 ;
185 [label="X[3] <= 0.7720\ngini = 0.833333333333\nsamples = 6", shape="box"] ;
183 -> 185 ;
186 [label="X[8] <= -1.0414\ngini = 0.75\nsamples = 4", shape="box"] ;
185 -> 186 ;
187 [label="gini = 0.0000\nsamples = 1\nvalue = [ 0.  0.  0.  0.  0.  0.  0.  0.  0.  0.  0.  0.  0.  0.  0.  0.  0.  0.
  0.  0.  0.  0.  0.  0.  0.  0.  0.  0.  0.  0.  0.  0.  0.  0.  0.  0.
  0.  0.  0.  0.  0.  0.  0.  0.  0.  0.  0.  0.  0.  0.  0.  0.  0.  0.
  0.  1.  0.  0.  0.  0.  0.  0.  0.  0.  0.  0.  0.  0.  0.  0.  0.  0.]", shape="box"] ;
186 -> 187 ;
188 [label="X[7] <= 5.4777\ngini = 0.666666666667\nsamples = 3", shape="box"] ;
186 -> 188 ;
189 [label="gini = 0.0000\nsamples = 1\nvalue = [ 0.  0.  0.  0.  0.  0.  0.  0.  0.  0.  0.  0.  0.  0.  0.  0.  0.  0.
  0.  0.  0.  0.  0.  0.  0.  0.  0.  0.  0.  0.  0.  0.  0.  0.  0.  0.
  0.  0.  0.  0.  0.  0.  0.  0.  0.  0.  0.  1.  0.  0.  0.  0.  0.  0.
  0.  0.  0.  0.  0.  0.  0.  0.  0.  0.  0.  0.  0.  0.  0.  0.  0.  0.]", shape="box"] ;
188 -> 189 ;
190 [label="X[8] <= 3.1096\ngini = 0.5\nsamples = 2", shape="box"] ;
188 -> 190 ;
191 [label="gini = 0.0000\nsamples = 1\nvalue = [ 0.  0.  0.  0.  0.  0.  0.  0.  0.  0.  0.  0.  0.  0.  0.  0.  0.  0.
  0.  0.  0.  0.  0.  0.  0.  0.  0.  0.  0.  0.  0.  0.  0.  0.  0.  0.
  0.  0.  0.  0.  0.  0.  0.  0.  1.  0.  0.  0.  0.  0.  0.  0.  0.  0.
  0.  0.  0.  0.  0.  0.  0.  0.  0.  0.  0.  0.  0.  0.  0.  0.  0.  0.]", shape="box"] ;
190 -> 191 ;
192 [label="gini = 0.0000\nsamples = 1\nvalue = [ 0.  0.  0.  0.  0.  0.  0.  1.  0.  0.  0.  0.  0.  0.  0.  0.  0.  0.
  0.  0.  0.  0.  0.  0.  0.  0.  0.  0.  0.  0.  0.  0.  0.  0.  0.  0.
  0.  0.  0.  0.  0.  0.  0.  0.  0.  0.  0.  0.  0.  0.  0.  0.  0.  0.
  0.  0.  0.  0.  0.  0.  0.  0.  0.  0.  0.  0.  0.  0.  0.  0.  0.  0.]", shape="box"] ;
190 -> 192 ;
193 [label="X[6] <= 0.5500\ngini = 0.5\nsamples = 2", shape="box"] ;
185 -> 193 ;
194 [label="gini = 0.0000\nsamples = 1\nvalue = [ 0.  0.  0.  0.  0.  0.  0.  0.  0.  0.  0.  0.  0.  0.  0.  0.  0.  0.
  0.  0.  0.  0.  0.  0.  0.  0.  0.  0.  0.  0.  0.  0.  0.  0.  0.  0.
  0.  0.  0.  0.  0.  0.  0.  0.  0.  0.  1.  0.  0.  0.  0.  0.  0.  0.
  0.  0.  0.  0.  0.  0.  0.  0.  0.  0.  0.  0.  0.  0.  0.  0.  0.  0.]", shape="box"] ;
193 -> 194 ;
195 [label="gini = 0.0000\nsamples = 1\nvalue = [ 0.  0.  0.  0.  0.  0.  0.  0.  0.  0.  0.  1.  0.  0.  0.  0.  0.  0.
  0.  0.  0.  0.  0.  0.  0.  0.  0.  0.  0.  0.  0.  0.  0.  0.  0.  0.
  0.  0.  0.  0.  0.  0.  0.  0.  0.  0.  0.  0.  0.  0.  0.  0.  0.  0.
  0.  0.  0.  0.  0.  0.  0.  0.  0.  0.  0.  0.  0.  0.  0.  0.  0.  0.]", shape="box"] ;
193 -> 195 ;
196 [label="X[2] <= 3.3270\ngini = 0.814814814815\nsamples = 9", shape="box"] ;
180 -> 196 ;
197 [label="X[6] <= -0.3881\ngini = 0.375\nsamples = 4", shape="box"] ;
196 -> 197 ;
198 [label="gini = 0.0000\nsamples = 1\nvalue = [ 0.  0.  0.  0.  0.  0.  0.  0.  0.  0.  0.  0.  0.  0.  0.  0.  0.  0.
  0.  0.  0.  0.  0.  0.  0.  0.  0.  0.  0.  0.  0.  0.  0.  0.  0.  0.
  0.  0.  0.  0.  0.  0.  0.  0.  0.  0.  0.  0.  0.  0.  0.  0.  0.  0.
  0.  0.  0.  0.  0.  0.  0.  0.  0.  0.  0.  0.  0.  0.  0.  0.  0.  1.]", shape="box"] ;
197 -> 198 ;
199 [label="gini = 0.0000\nsamples = 3\nvalue = [ 0.  0.  3.  0.  0.  0.  0.  0.  0.  0.  0.  0.  0.  0.  0.  0.  0.  0.
  0.  0.  0.  0.  0.  0.  0.  0.  0.  0.  0.  0.  0.  0.  0.  0.  0.  0.
  0.  0.  0.  0.  0.  0.  0.  0.  0.  0.  0.  0.  0.  0.  0.  0.  0.  0.
  0.  0.  0.  0.  0.  0.  0.  0.  0.  0.  0.  0.  0.  0.  0.  0.  0.  0.]", shape="box"] ;
197 -> 199 ;
200 [label="X[2] <= 3.7915\ngini = 0.8\nsamples = 5", shape="box"] ;
196 -> 200 ;
201 [label="X[3] <= 0.6398\ngini = 0.666666666667\nsamples = 3", shape="box"] ;
200 -> 201 ;
202 [label="gini = 0.0000\nsamples = 1\nvalue = [ 0.  0.  0.  0.  0.  0.  0.  0.  1.  0.  0.  0.  0.  0.  0.  0.  0.  0.
  0.  0.  0.  0.  0.  0.  0.  0.  0.  0.  0.  0.  0.  0.  0.  0.  0.  0.
  0.  0.  0.  0.  0.  0.  0.  0.  0.  0.  0.  0.  0.  0.  0.  0.  0.  0.
  0.  0.  0.  0.  0.  0.  0.  0.  0.  0.  0.  0.  0.  0.  0.  0.  0.  0.]", shape="box"] ;
201 -> 202 ;
203 [label="X[8] <= 3.5222\ngini = 0.5\nsamples = 2", shape="box"] ;
201 -> 203 ;
204 [label="gini = 0.0000\nsamples = 1\nvalue = [ 0.  0.  0.  0.  0.  0.  0.  0.  0.  0.  0.  0.  0.  0.  0.  0.  0.  0.
  0.  0.  0.  0.  0.  0.  0.  0.  0.  0.  0.  0.  0.  0.  0.  0.  0.  0.
  0.  0.  0.  0.  0.  0.  0.  0.  0.  0.  0.  0.  0.  0.  0.  0.  0.  0.
  0.  0.  0.  0.  0.  0.  0.  0.  0.  0.  0.  0.  0.  0.  1.  0.  0.  0.]", shape="box"] ;
203 -> 204 ;
205 [label="gini = 0.0000\nsamples = 1\nvalue = [ 0.  0.  0.  0.  0.  0.  0.  0.  0.  0.  0.  0.  0.  0.  0.  0.  0.  0.
  0.  0.  0.  0.  0.  0.  0.  0.  0.  0.  0.  1.  0.  0.  0.  0.  0.  0.
  0.  0.  0.  0.  0.  0.  0.  0.  0.  0.  0.  0.  0.  0.  0.  0.  0.  0.
  0.  0.  0.  0.  0.  0.  0.  0.  0.  0.  0.  0.  0.  0.  0.  0.  0.  0.]", shape="box"] ;
203 -> 205 ;
206 [label="X[0] <= 0.0088\ngini = 0.5\nsamples = 2", shape="box"] ;
200 -> 206 ;
207 [label="gini = 0.0000\nsamples = 1\nvalue = [ 0.  0.  0.  0.  0.  0.  0.  0.  0.  0.  0.  0.  0.  0.  1.  0.  0.  0.
  0.  0.  0.  0.  0.  0.  0.  0.  0.  0.  0.  0.  0.  0.  0.  0.  0.  0.
  0.  0.  0.  0.  0.  0.  0.  0.  0.  0.  0.  0.  0.  0.  0.  0.  0.  0.
  0.  0.  0.  0.  0.  0.  0.  0.  0.  0.  0.  0.  0.  0.  0.  0.  0.  0.]", shape="box"] ;
206 -> 207 ;
208 [label="gini = 0.0000\nsamples = 1\nvalue = [ 0.  0.  0.  0.  0.  0.  0.  0.  0.  0.  0.  0.  0.  0.  0.  0.  0.  0.
  0.  0.  0.  0.  0.  0.  0.  0.  0.  0.  0.  0.  0.  0.  0.  0.  0.  0.
  0.  0.  0.  0.  0.  0.  0.  0.  0.  0.  0.  0.  0.  0.  0.  0.  0.  0.
  0.  0.  0.  0.  0.  0.  0.  0.  0.  1.  0.  0.  0.  0.  0.  0.  0.  0.]", shape="box"] ;
206 -> 208 ;
209 [label="X[3] <= 0.7395\ngini = 0.375\nsamples = 4", shape="box"] ;
179 -> 209 ;
210 [label="gini = 0.0000\nsamples = 3\nvalue = [ 0.  0.  0.  0.  0.  0.  0.  3.  0.  0.  0.  0.  0.  0.  0.  0.  0.  0.
  0.  0.  0.  0.  0.  0.  0.  0.  0.  0.  0.  0.  0.  0.  0.  0.  0.  0.
  0.  0.  0.  0.  0.  0.  0.  0.  0.  0.  0.  0.  0.  0.  0.  0.  0.  0.
  0.  0.  0.  0.  0.  0.  0.  0.  0.  0.  0.  0.  0.  0.  0.  0.  0.  0.]", shape="box"] ;
209 -> 210 ;
211 [label="gini = 0.0000\nsamples = 1\nvalue = [ 0.  0.  0.  0.  0.  0.  0.  0.  0.  0.  0.  0.  0.  0.  0.  0.  0.  0.
  0.  0.  0.  0.  0.  0.  0.  0.  0.  1.  0.  0.  0.  0.  0.  0.  0.  0.
  0.  0.  0.  0.  0.  0.  0.  0.  0.  0.  0.  0.  0.  0.  0.  0.  0.  0.
  0.  0.  0.  0.  0.  0.  0.  0.  0.  0.  0.  0.  0.  0.  0.  0.  0.  0.]", shape="box"] ;
209 -> 211 ;
212 [label="X[10] <= 0.3277\ngini = 0.920138888889\nsamples = 24", shape="box"] ;
0 -> 212 ;
213 [label="X[4] <= 0.4506\ngini = 0.48\nsamples = 5", shape="box"] ;
212 -> 213 ;
214 [label="gini = 0.0000\nsamples = 2\nvalue = [ 0.  0.  0.  2.  0.  0.  0.  0.  0.  0.  0.  0.  0.  0.  0.  0.  0.  0.
  0.  0.  0.  0.  0.  0.  0.  0.  0.  0.  0.  0.  0.  0.  0.  0.  0.  0.
  0.  0.  0.  0.  0.  0.  0.  0.  0.  0.  0.  0.  0.  0.  0.  0.  0.  0.
  0.  0.  0.  0.  0.  0.  0.  0.  0.  0.  0.  0.  0.  0.  0.  0.  0.  0.]", shape="box"] ;
213 -> 214 ;
215 [label="gini = 0.0000\nsamples = 3\nvalue = [ 0.  0.  0.  0.  0.  0.  0.  0.  0.  0.  0.  0.  0.  0.  0.  0.  0.  0.
  0.  0.  0.  0.  0.  0.  0.  0.  0.  0.  0.  0.  0.  0.  0.  0.  0.  0.
  0.  0.  0.  0.  0.  0.  0.  0.  0.  0.  0.  0.  0.  0.  0.  0.  0.  0.
  0.  0.  0.  0.  0.  0.  0.  0.  0.  0.  0.  0.  0.  0.  0.  0.  0.  3.]", shape="box"] ;
213 -> 215 ;
216 [label="X[2] <= -2.0503\ngini = 0.930747922438\nsamples = 19", shape="box"] ;
212 -> 216 ;
217 [label="gini = 0.0000\nsamples = 2\nvalue = [ 0.  0.  0.  0.  0.  0.  0.  0.  0.  0.  0.  0.  0.  0.  0.  0.  0.  0.
  0.  0.  0.  0.  0.  0.  0.  0.  0.  0.  0.  0.  0.  0.  0.  0.  0.  0.
  0.  0.  0.  0.  0.  0.  0.  0.  0.  0.  0.  0.  0.  0.  0.  0.  0.  0.
  0.  0.  0.  0.  0.  0.  0.  0.  0.  0.  0.  0.  2.  0.  0.  0.  0.  0.]", shape="box"] ;
216 -> 217 ;
218 [label="X[10] <= 0.8804\ngini = 0.927335640138\nsamples = 17", shape="box"] ;
216 -> 218 ;
219 [label="X[10] <= 0.5664\ngini = 0.918367346939\nsamples = 14", shape="box"] ;
218 -> 219 ;
220 [label="X[3] <= 0.3057\ngini = 0.72\nsamples = 5", shape="box"] ;
219 -> 220 ;
221 [label="X[2] <= 3.3387\ngini = 0.444444444444\nsamples = 3", shape="box"] ;
220 -> 221 ;
222 [label="gini = 0.0000\nsamples = 2\nvalue = [ 0.  0.  0.  2.  0.  0.  0.  0.  0.  0.  0.  0.  0.  0.  0.  0.  0.  0.
  0.  0.  0.  0.  0.  0.  0.  0.  0.  0.  0.  0.  0.  0.  0.  0.  0.  0.
  0.  0.  0.  0.  0.  0.  0.  0.  0.  0.  0.  0.  0.  0.  0.  0.  0.  0.
  0.  0.  0.  0.  0.  0.  0.  0.  0.  0.  0.  0.  0.  0.  0.  0.  0.  0.]", shape="box"] ;
221 -> 222 ;
223 [label="gini = 0.0000\nsamples = 1\nvalue = [ 0.  0.  0.  0.  0.  0.  0.  0.  0.  0.  0.  0.  0.  0.  0.  0.  0.  0.
  0.  0.  0.  0.  0.  0.  1.  0.  0.  0.  0.  0.  0.  0.  0.  0.  0.  0.
  0.  0.  0.  0.  0.  0.  0.  0.  0.  0.  0.  0.  0.  0.  0.  0.  0.  0.
  0.  0.  0.  0.  0.  0.  0.  0.  0.  0.  0.  0.  0.  0.  0.  0.  0.  0.]", shape="box"] ;
221 -> 223 ;
224 [label="X[9] <= 0.2049\ngini = 0.5\nsamples = 2", shape="box"] ;
220 -> 224 ;
225 [label="gini = 0.0000\nsamples = 1\nvalue = [ 0.  0.  0.  0.  0.  0.  0.  0.  0.  0.  0.  0.  0.  0.  0.  0.  0.  0.
  0.  0.  0.  0.  0.  0.  0.  0.  0.  0.  0.  0.  0.  0.  0.  0.  0.  0.
  0.  0.  0.  0.  0.  0.  0.  0.  0.  0.  0.  0.  0.  0.  0.  0.  0.  0.
  0.  0.  0.  0.  0.  0.  0.  0.  0.  0.  0.  0.  0.  1.  0.  0.  0.  0.]", shape="box"] ;
224 -> 225 ;
226 [label="gini = 0.0000\nsamples = 1\nvalue = [ 0.  0.  1.  0.  0.  0.  0.  0.  0.  0.  0.  0.  0.  0.  0.  0.  0.  0.
  0.  0.  0.  0.  0.  0.  0.  0.  0.  0.  0.  0.  0.  0.  0.  0.  0.  0.
  0.  0.  0.  0.  0.  0.  0.  0.  0.  0.  0.  0.  0.  0.  0.  0.  0.  0.
  0.  0.  0.  0.  0.  0.  0.  0.  0.  0.  0.  0.  0.  0.  0.  0.  0.  0.]", shape="box"] ;
224 -> 226 ;
227 [label="X[3] <= 0.1478\ngini = 0.888888888889\nsamples = 9", shape="box"] ;
219 -> 227 ;
228 [label="gini = 0.0000\nsamples = 1\nvalue = [ 0.  0.  0.  0.  0.  0.  0.  0.  0.  0.  0.  0.  0.  0.  0.  0.  0.  0.
  0.  0.  0.  0.  0.  0.  0.  0.  0.  0.  0.  0.  0.  0.  0.  0.  0.  0.
  0.  0.  0.  0.  0.  0.  0.  0.  0.  0.  0.  0.  0.  0.  0.  0.  0.  0.
  0.  0.  0.  0.  1.  0.  0.  0.  0.  0.  0.  0.  0.  0.  0.  0.  0.  0.]", shape="box"] ;
227 -> 228 ;
229 [label="X[6] <= -0.4466\ngini = 0.875\nsamples = 8", shape="box"] ;
227 -> 229 ;
230 [label="gini = 0.0000\nsamples = 1\nvalue = [ 0.  0.  0.  0.  0.  0.  0.  0.  0.  0.  0.  0.  0.  0.  0.  0.  0.  0.
  0.  0.  0.  0.  0.  0.  0.  0.  0.  0.  0.  0.  0.  0.  0.  0.  0.  0.
  0.  0.  0.  0.  0.  0.  0.  0.  0.  0.  0.  0.  0.  0.  0.  0.  0.  0.
  0.  0.  0.  0.  0.  0.  0.  0.  0.  0.  0.  0.  0.  0.  1.  0.  0.  0.]", shape="box"] ;
229 -> 230 ;
231 [label="X[10] <= 0.5876\ngini = 0.857142857143\nsamples = 7", shape="box"] ;
229 -> 231 ;
232 [label="gini = 0.0000\nsamples = 1\nvalue = [ 0.  0.  0.  0.  0.  0.  0.  0.  0.  0.  0.  0.  0.  0.  0.  0.  0.  0.
  0.  0.  0.  0.  0.  0.  0.  0.  0.  0.  0.  0.  0.  0.  0.  0.  0.  0.
  0.  0.  0.  0.  0.  0.  0.  0.  0.  0.  0.  0.  0.  0.  1.  0.  0.  0.
  0.  0.  0.  0.  0.  0.  0.  0.  0.  0.  0.  0.  0.  0.  0.  0.  0.  0.]", shape="box"] ;
231 -> 232 ;
233 [label="X[0] <= 1.0750\ngini = 0.833333333333\nsamples = 6", shape="box"] ;
231 -> 233 ;
234 [label="X[1] <= 11.3380\ngini = 0.75\nsamples = 4", shape="box"] ;
233 -> 234 ;
235 [label="gini = 0.0000\nsamples = 1\nvalue = [ 0.  0.  0.  0.  0.  0.  0.  0.  0.  0.  0.  0.  0.  0.  0.  0.  0.  0.
  0.  0.  0.  0.  0.  0.  0.  0.  0.  0.  0.  0.  0.  0.  0.  0.  0.  0.
  0.  0.  0.  0.  0.  0.  0.  0.  0.  0.  0.  0.  0.  1.  0.  0.  0.  0.
  0.  0.  0.  0.  0.  0.  0.  0.  0.  0.  0.  0.  0.  0.  0.  0.  0.  0.]", shape="box"] ;
234 -> 235 ;
236 [label="X[10] <= 0.6984\ngini = 0.666666666667\nsamples = 3", shape="box"] ;
234 -> 236 ;
237 [label="gini = 0.0000\nsamples = 1\nvalue = [ 0.  0.  0.  0.  0.  0.  0.  0.  0.  0.  0.  0.  0.  0.  0.  0.  0.  0.
  0.  0.  0.  0.  0.  0.  0.  0.  0.  0.  0.  0.  0.  0.  0.  0.  0.  0.
  0.  0.  0.  0.  0.  0.  0.  0.  0.  0.  0.  0.  0.  0.  0.  0.  0.  0.
  0.  0.  0.  0.  0.  0.  0.  0.  0.  0.  0.  0.  0.  0.  0.  1.  0.  0.]", shape="box"] ;
236 -> 237 ;
238 [label="X[2] <= 2.6683\ngini = 0.5\nsamples = 2", shape="box"] ;
236 -> 238 ;
239 [label="gini = 0.0000\nsamples = 1\nvalue = [ 0.  0.  0.  0.  0.  0.  0.  0.  0.  0.  0.  0.  0.  0.  0.  0.  0.  0.
  0.  0.  0.  0.  0.  0.  0.  0.  0.  0.  0.  0.  0.  0.  0.  0.  0.  0.
  0.  0.  0.  0.  0.  0.  1.  0.  0.  0.  0.  0.  0.  0.  0.  0.  0.  0.
  0.  0.  0.  0.  0.  0.  0.  0.  0.  0.  0.  0.  0.  0.  0.  0.  0.  0.]", shape="box"] ;
238 -> 239 ;
240 [label="gini = 0.0000\nsamples = 1\nvalue = [ 0.  0.  0.  0.  0.  0.  0.  0.  0.  0.  0.  0.  0.  0.  0.  0.  0.  0.
  0.  0.  0.  0.  0.  0.  0.  0.  0.  0.  0.  0.  0.  0.  0.  0.  0.  0.
  0.  0.  0.  0.  0.  0.  0.  0.  0.  0.  0.  0.  0.  0.  0.  0.  0.  0.
  0.  0.  0.  0.  0.  0.  0.  0.  0.  0.  0.  1.  0.  0.  0.  0.  0.  0.]", shape="box"] ;
238 -> 240 ;
241 [label="X[8] <= 0.9649\ngini = 0.5\nsamples = 2", shape="box"] ;
233 -> 241 ;
242 [label="gini = 0.0000\nsamples = 1\nvalue = [ 0.  0.  0.  0.  0.  0.  0.  0.  0.  0.  0.  0.  0.  0.  0.  0.  0.  0.
  0.  0.  0.  0.  0.  0.  0.  0.  0.  0.  0.  0.  0.  0.  0.  0.  0.  0.
  0.  0.  0.  0.  0.  0.  0.  0.  0.  0.  0.  0.  0.  0.  0.  0.  0.  0.
  0.  0.  0.  0.  0.  1.  0.  0.  0.  0.  0.  0.  0.  0.  0.  0.  0.  0.]", shape="box"] ;
241 -> 242 ;
243 [label="gini = 0.0000\nsamples = 1\nvalue = [ 0.  0.  0.  0.  0.  0.  0.  0.  1.  0.  0.  0.  0.  0.  0.  0.  0.  0.
  0.  0.  0.  0.  0.  0.  0.  0.  0.  0.  0.  0.  0.  0.  0.  0.  0.  0.
  0.  0.  0.  0.  0.  0.  0.  0.  0.  0.  0.  0.  0.  0.  0.  0.  0.  0.
  0.  0.  0.  0.  0.  0.  0.  0.  0.  0.  0.  0.  0.  0.  0.  0.  0.  0.]", shape="box"] ;
241 -> 243 ;
244 [label="X[7] <= 10.7473\ngini = 0.444444444444\nsamples = 3", shape="box"] ;
218 -> 244 ;
245 [label="gini = 0.0000\nsamples = 1\nvalue = [ 0.  0.  0.  0.  0.  0.  0.  0.  0.  0.  0.  0.  0.  1.  0.  0.  0.  0.
  0.  0.  0.  0.  0.  0.  0.  0.  0.  0.  0.  0.  0.  0.  0.  0.  0.  0.
  0.  0.  0.  0.  0.  0.  0.  0.  0.  0.  0.  0.  0.  0.  0.  0.  0.  0.
  0.  0.  0.  0.  0.  0.  0.  0.  0.  0.  0.  0.  0.  0.  0.  0.  0.  0.]", shape="box"] ;
244 -> 245 ;
246 [label="gini = 0.0000\nsamples = 2\nvalue = [ 0.  0.  0.  0.  0.  0.  0.  0.  0.  0.  0.  0.  0.  0.  0.  0.  0.  0.
  0.  0.  0.  0.  0.  0.  0.  0.  0.  0.  0.  0.  0.  0.  0.  0.  2.  0.
  0.  0.  0.  0.  0.  0.  0.  0.  0.  0.  0.  0.  0.  0.  0.  0.  0.  0.
  0.  0.  0.  0.  0.  0.  0.  0.  0.  0.  0.  0.  0.  0.  0.  0.  0.  0.]", shape="box"] ;
244 -> 246 ;
}